digraph Tree {
node [shape=box] ;
0 [label="X[0] <= -0.011\ngini = 0.497\nsamples = 250\nvalue = [116, 134]"] ;
1 [label="X[1] <= -0.826\ngini = 0.459\nsamples = 115\nvalue = [41, 74]"] ;
0 -> 1 [labeldistance=2.5, labelangle=45, headlabel="True"] ;
2 [label="gini = 0.0\nsamples = 19\nvalue = [19, 0]"] ;
1 -> 2 ;
3 [label="X[1] <= 0.527\ngini = 0.353\nsamples = 96\nvalue = [22, 74]"] ;
1 -> 3 ;
4 [label="X[0] <= -0.86\ngini = 0.49\nsamples = 49\nvalue = [21, 28]"] ;
3 -> 4 ;
5 [label="X[1] <= 0.026\ngini = 0.355\nsamples = 13\nvalue = [10, 3]"] ;
4 -> 5 ;
6 [label="gini = 0.0\nsamples = 10\nvalue = [10, 0]"] ;
5 -> 6 ;
7 [label="gini = 0.0\nsamples = 3\nvalue = [0, 3]"] ;
5 -> 7 ;
8 [label="X[1] <= 0.253\ngini = 0.424\nsamples = 36\nvalue = [11, 25]"] ;
4 -> 8 ;
9 [label="X[0] <= -0.516\ngini = 0.342\nsamples = 32\nvalue = [7, 25]"] ;
8 -> 9 ;
10 [label="X[0] <= -0.625\ngini = 0.475\nsamples = 18\nvalue = [7, 11]"] ;
9 -> 10 ;
11 [label="X[1] <= -0.096\ngini = 0.391\nsamples = 15\nvalue = [4, 11]"] ;
10 -> 11 ;
12 [label="gini = 0.0\nsamples = 2\nvalue = [2, 0]"] ;
11 -> 12 ;
13 [label="X[1] <= 0.022\ngini = 0.26\nsamples = 13\nvalue = [2, 11]"] ;
11 -> 13 ;
14 [label="X[1] <= -0.03\ngini = 0.48\nsamples = 5\nvalue = [2, 3]"] ;
13 -> 14 ;
15 [label="gini = 0.0\nsamples = 2\nvalue = [0, 2]"] ;
14 -> 15 ;
16 [label="X[1] <= -0.008\ngini = 0.444\nsamples = 3\nvalue = [2, 1]"] ;
14 -> 16 ;
17 [label="gini = 0.0\nsamples = 1\nvalue = [1, 0]"] ;
16 -> 17 ;
18 [label="X[0] <= -0.682\ngini = 0.5\nsamples = 2\nvalue = [1, 1]"] ;
16 -> 18 ;
19 [label="gini = 0.0\nsamples = 1\nvalue = [0, 1]"] ;
18 -> 19 ;
20 [label="gini = 0.0\nsamples = 1\nvalue = [1, 0]"] ;
18 -> 20 ;
21 [label="gini = 0.0\nsamples = 8\nvalue = [0, 8]"] ;
13 -> 21 ;
22 [label="gini = 0.0\nsamples = 3\nvalue = [3, 0]"] ;
10 -> 22 ;
23 [label="gini = 0.0\nsamples = 14\nvalue = [0, 14]"] ;
9 -> 23 ;
24 [label="gini = 0.0\nsamples = 4\nvalue = [4, 0]"] ;
8 -> 24 ;
25 [label="X[0] <= -0.042\ngini = 0.042\nsamples = 47\nvalue = [1, 46]"] ;
3 -> 25 ;
26 [label="gini = 0.0\nsamples = 46\nvalue = [0, 46]"] ;
25 -> 26 ;
27 [label="gini = 0.0\nsamples = 1\nvalue = [1, 0]"] ;
25 -> 27 ;
28 [label="X[1] <= 0.446\ngini = 0.494\nsamples = 135\nvalue = [75, 60]"] ;
0 -> 28 [labeldistance=2.5, labelangle=-45, headlabel="False"] ;
29 [label="X[1] <= -0.723\ngini = 0.41\nsamples = 80\nvalue = [23, 57]"] ;
28 -> 29 ;
30 [label="gini = 0.0\nsamples = 33\nvalue = [0, 33]"] ;
29 -> 30 ;
31 [label="X[0] <= 0.923\ngini = 0.5\nsamples = 47\nvalue = [23, 24]"] ;
29 -> 31 ;
32 [label="X[1] <= -0.27\ngini = 0.489\nsamples = 40\nvalue = [23, 17]"] ;
31 -> 32 ;
33 [label="X[1] <= -0.677\ngini = 0.165\nsamples = 11\nvalue = [10, 1]"] ;
32 -> 33 ;
34 [label="X[1] <= -0.708\ngini = 0.5\nsamples = 2\nvalue = [1, 1]"] ;
33 -> 34 ;
35 [label="gini = 0.0\nsamples = 1\nvalue = [1, 0]"] ;
34 -> 35 ;
36 [label="gini = 0.0\nsamples = 1\nvalue = [0, 1]"] ;
34 -> 36 ;
37 [label="gini = 0.0\nsamples = 9\nvalue = [9, 0]"] ;
33 -> 37 ;
38 [label="X[0] <= 0.549\ngini = 0.495\nsamples = 29\nvalue = [13, 16]"] ;
32 -> 38 ;
39 [label="gini = 0.0\nsamples = 10\nvalue = [0, 10]"] ;
38 -> 39 ;
40 [label="X[1] <= -0.02\ngini = 0.432\nsamples = 19\nvalue = [13, 6]"] ;
38 -> 40 ;
41 [label="X[0] <= 0.62\ngini = 0.375\nsamples = 8\nvalue = [2, 6]"] ;
40 -> 41 ;
42 [label="gini = 0.0\nsamples = 1\nvalue = [1, 0]"] ;
41 -> 42 ;
43 [label="X[1] <= -0.089\ngini = 0.245\nsamples = 7\nvalue = [1, 6]"] ;
41 -> 43 ;
44 [label="X[0] <= 0.721\ngini = 0.444\nsamples = 3\nvalue = [1, 2]"] ;
43 -> 44 ;
45 [label="gini = 0.0\nsamples = 1\nvalue = [1, 0]"] ;
44 -> 45 ;
46 [label="gini = 0.0\nsamples = 2\nvalue = [0, 2]"] ;
44 -> 46 ;
47 [label="gini = 0.0\nsamples = 4\nvalue = [0, 4]"] ;
43 -> 47 ;
48 [label="gini = 0.0\nsamples = 11\nvalue = [11, 0]"] ;
40 -> 48 ;
49 [label="gini = 0.0\nsamples = 7\nvalue = [0, 7]"] ;
31 -> 49 ;
50 [label="X[0] <= 0.208\ngini = 0.103\nsamples = 55\nvalue = [52, 3]"] ;
28 -> 50 ;
51 [label="X[1] <= 0.643\ngini = 0.469\nsamples = 8\nvalue = [5, 3]"] ;
50 -> 51 ;
52 [label="X[0] <= 0.048\ngini = 0.375\nsamples = 4\nvalue = [1, 3]"] ;
51 -> 52 ;
53 [label="X[1] <= 0.628\ngini = 0.5\nsamples = 2\nvalue = [1, 1]"] ;
52 -> 53 ;
54 [label="gini = 0.0\nsamples = 1\nvalue = [1, 0]"] ;
53 -> 54 ;
55 [label="gini = 0.0\nsamples = 1\nvalue = [0, 1]"] ;
53 -> 55 ;
56 [label="gini = 0.0\nsamples = 2\nvalue = [0, 2]"] ;
52 -> 56 ;
57 [label="gini = 0.0\nsamples = 4\nvalue = [4, 0]"] ;
51 -> 57 ;
58 [label="gini = 0.0\nsamples = 47\nvalue = [47, 0]"] ;
50 -> 58 ;
}
